#include "model_data.h"

const float W1_data[] PROGMEM = {
    0.27409142f, 0.3826909f, -0.17235088f, -0.0062267566f, -0.5071732f, 0.07571536f, -0.15021837f, -0.5307514f, 0.3739223f, -0.34649393f, -0.1394358f, 0.34462327f, -0.6657571f, -0.10238792f, 0.3758955f, 0.13714562f, -0.52910507f, -0.5661353f, 0.08199084f, 0.2454236f, -0.18428886f, -0.30513543f, 0.08945175f, -0.024926841f, -0.2144351f, -0.10203645f, -0.54938877f, -0.26069894f, 0.302022f, 0.2111998f, -0.18960765f, 0.40277827f
};

const float b1_data[] PROGMEM = {
    0.0f, 0.0f, -0.09372084f, 0.06307019f, 0.0f, 0.0f, -0.056597f, 0.0f, 0.0f, 0.0f, 0.0f, 0.0f, -0.06760476f, 0.076421246f, -0.0682106f, -0.065195836f
};

const float W2_data[] PROGMEM = {
    0.03478521f, 0.0824087f, -0.23810582f, -0.25257498f, -0.3541595f, 0.08849737f, 0.35965452f, -0.112455785f, -0.08202848f, 0.078697175f, 0.16618338f, -0.36017004f, -0.43997663f, 0.20932095f, 0.18213758f, 0.03684915f, -0.19130166f, -0.033019632f, 0.2320772f, -0.28801244f, 0.35989377f, -0.0564259f, -0.36648762f, -0.23947304f, 0.13880149f, -0.30138978f, 0.19426224f, 0.1464698f, 0.28860164f, 0.11824991f, 0.24849384f, 0.12339481f, -0.25479114f, -0.066030174f, -0.44366184f, 0.28088772f, 0.032058895f, 0.051609635f, 0.15051533f, 0.3978835f, -0.3799376f, -0.28965157f, -0.42637572f, 0.36745533f, -0.37039995f, -0.11384429f, -0.08516978f, -0.11036552f, 0.049906403f, 0.3829988f, 0.063814044f, -0.017430335f, -0.37347364f, 0.22795889f, -0.31768048f, 0.24061021f, 0.08647969f, 0.06757876f, -0.021797925f, -0.33399945f, -0.4309216f, -0.19343641f, -0.29442182f, -0.10629907f, 0.027190894f, 0.2735525f, -0.20419963f, -0.36162457f, -0.1881216f, 0.32525453f, -0.34655952f, -0.3684221f, 0.23211709f, -0.27852118f, -0.3202255f, 0.01637587f, 0.3126215f, 0.16376057f, 0.13572404f, -0.43122193f, -0.07867995f, -0.04543093f, 0.02434948f, -0.42635155f, 0.37664327f, -0.14759913f, -0.24472302f, -0.0018060505f, -0.37126124f, -0.42939842f, 0.231397f, 0.13569298f, -0.42447323f, 0.15944585f, 0.1273571f, 0.08374938f, 0.10868421f, -0.037582874f, -0.2091393f, -0.2852389f, 0.049842805f, -0.02938214f, 0.4422506f, 0.39191976f, 0.4062647f, -0.32568163f, -0.063507944f, 0.10562739f, 0.13832535f, 0.15092584f, 0.22449896f, 0.14173396f, -0.3110528f, -0.4236783f, 0.06731054f, 0.13297263f, 0.36212918f, 0.29584798f, -0.002032131f, -0.020593673f, 0.20318398f, -0.3536676f, -0.32118738f, 0.34167054f, 0.26970378f, -0.2961814f, -0.0026586056f, -0.22217691f, -0.19607663f, -0.18837433f, -0.39273047f, -0.39327854f, -0.1891451f, -0.10348678f, 0.40118328f, -0.29382697f, 0.21519634f, -0.13846543f, 0.33607152f, -0.19949691f, 0.19735596f, -0.073569864f, 0.07120231f, -0.21101087f, 0.18076286f, 0.37086913f, -0.33331677f, 0.21880901f, 0.41030154f, -0.27356148f, 0.28064424f, 0.22387561f, -0.20134746f, -0.10195193f, 0.16812184f, 0.26491144f, 0.3178532f, 0.21211712f, 0.042899936f, -0.3722046f, 0.2056559f, -0.06782311f, 0.031627823f, -0.25080058f, 0.4160193f, 0.05356279f, 0.25172517f, -0.039527148f, 0.005653858f, -0.04572475f, 0.3585976f, -0.057127923f, 0.37936068f, 0.31449005f, 0.33760372f, 0.06459093f, 0.4033194f, 0.3329622f, 0.018880293f, -0.28430176f, -0.1518091f, -0.19549179f, 0.0074723745f, 0.049622804f, -0.090023786f, 0.15625969f, 0.027420074f, 0.2899761f, -0.2506489f, 0.26274508f, 0.13774857f, 0.18495497f, 0.068217486f, -0.17536736f, 0.023425698f, 0.3219528f, 0.14499876f, -0.38396376f, -0.4117579f, -0.34996772f, 0.27122614f, -0.25275505f, -0.14539418f, -0.26663893f, -0.24054435f, 0.26737037f, -0.4291844f, -0.39545533f, 0.2376279f, 0.34177765f, -0.4162755f, -0.4188118f, 0.34934077f, 0.145277f, 0.18670206f, 0.17585751f, -0.39755592f, 0.16874757f, 0.41157308f, -0.16574109f, -0.1377694f, -0.39674997f, -0.088842124f, 0.32609499f, 0.35862073f, 0.10372195f, 0.069686025f, 0.19711736f, -0.3209329f, -0.40469587f, 0.01697433f, 0.0452514f, -0.21778257f, 0.34401396f, 0.141942f, 0.17433992f, -0.0017323494f, 0.09770504f, -0.31750217f, -0.34739378f, 0.09243396f, 0.26978806f, 0.3600518f, 0.33224156f, -0.41245136f, -0.26059115f, 0.07754571f, 0.368382f, -0.19452548f, 0.0009213984f, -0.11300367f, 0.1284819f, 0.14936842f, -0.40317634f, 0.17031817f, -0.031392645f
};

const float b2_data[] PROGMEM = {
    -0.050527725f, -0.0919805f, -0.070855975f, 0.0f, 0.0f, 0.0f, 0.100475475f, 0.0f, 0.0f, -0.045586646f, -0.096364364f, -0.006065646f, 0.0f, -0.070068926f, 0.0f, -0.08962895f
};

const float W3_data[] PROGMEM = {
    0.19025949f, 0.14592037f, 0.0855212f, 0.5812572f, 0.04303658f, -0.11459172f, -0.010611909f, -0.2715659f, -0.033328176f, -0.4721329f, 0.25216708f, -0.038515747f, 0.57804716f, 0.2380067f, -0.33519903f, 0.34082863f
};

const float b3_data[] PROGMEM = {
    -0.10121559f
};

